Language model created by QuickLM on Wed Nov 11 00:58:02 EST 2020
Copyright (c) 1996-2010 Carnegie Mellon University and Alexander I. Rudnicky

The model is in standard ARPA format, designed by Doug Paul while he was at MITRE.

The code that was used to produce this language model is available in Open Source.
Please visit http://www.speech.cs.cmu.edu/tools/ for more information

The (fixed) discount mass is 0.5. The backoffs are computed using the ratio method.
This model based on a corpus of 16 sentences and 18 words

\data\
ngram 1=18
ngram 2=32
ngram 3=16

\1-grams:
-0.7782 </s> -0.3010
-0.7782 <s> -0.2218
-1.9823 低速 -0.2218
-1.9823 停下 -0.2218
-1.9823 升高 -0.2218
-1.9823 右十 -0.2218
-1.9823 右看 -0.2218
-1.9823 右转 -0.2218
-1.9823 后退 -0.2218
-1.9823 导航 -0.2218
-1.9823 小白 -0.2218
-1.9823 左十 -0.2218
-1.9823 左看 -0.2218
-1.9823 左转 -0.2218
-1.9823 弯腰 -0.2218
-1.9823 雷达关 -0.2218
-1.9823 雷达开 -0.2218
-1.9823 高速 -0.2218

\2-grams:
-1.5051 <s> 低速 0.0000
-1.5051 <s> 停下 0.0000
-1.5051 <s> 升高 0.0000
-1.5051 <s> 右十 0.0000
-1.5051 <s> 右看 0.0000
-1.5051 <s> 右转 0.0000
-1.5051 <s> 后退 0.0000
-1.5051 <s> 导航 0.0000
-1.5051 <s> 小白 0.0000
-1.5051 <s> 左十 0.0000
-1.5051 <s> 左看 0.0000
-1.5051 <s> 左转 0.0000
-1.5051 <s> 弯腰 0.0000
-1.5051 <s> 雷达关 0.0000
-1.5051 <s> 雷达开 0.0000
-1.5051 <s> 高速 0.0000
-0.3010 低速 </s> -0.3010
-0.3010 停下 </s> -0.3010
-0.3010 升高 </s> -0.3010
-0.3010 右十 </s> -0.3010
-0.3010 右看 </s> -0.3010
-0.3010 右转 </s> -0.3010
-0.3010 后退 </s> -0.3010
-0.3010 导航 </s> -0.3010
-0.3010 小白 </s> -0.3010
-0.3010 左十 </s> -0.3010
-0.3010 左看 </s> -0.3010
-0.3010 左转 </s> -0.3010
-0.3010 弯腰 </s> -0.3010
-0.3010 雷达关 </s> -0.3010
-0.3010 雷达开 </s> -0.3010
-0.3010 高速 </s> -0.3010

\3-grams:
-0.3010 <s> 低速 </s>
-0.3010 <s> 停下 </s>
-0.3010 <s> 升高 </s>
-0.3010 <s> 右十 </s>
-0.3010 <s> 右看 </s>
-0.3010 <s> 右转 </s>
-0.3010 <s> 后退 </s>
-0.3010 <s> 导航 </s>
-0.3010 <s> 小白 </s>
-0.3010 <s> 左十 </s>
-0.3010 <s> 左看 </s>
-0.3010 <s> 左转 </s>
-0.3010 <s> 弯腰 </s>
-0.3010 <s> 雷达关 </s>
-0.3010 <s> 雷达开 </s>
-0.3010 <s> 高速 </s>

\end\
