Language model created by QuickLM on Tue Oct 13 01:51:01 EDT 2020
Copyright (c) 1996-2010 Carnegie Mellon University and Alexander I. Rudnicky

The model is in standard ARPA format, designed by Doug Paul while he was at MITRE.

The code that was used to produce this language model is available in Open Source.
Please visit http://www.speech.cs.cmu.edu/tools/ for more information

The (fixed) discount mass is 0.5. The backoffs are computed using the ratio method.
This model based on a corpus of 5 sentences and 7 words

\data\
ngram 1=7
ngram 2=10
ngram 3=5

\1-grams:
-0.7782 </s> -0.3010
-0.7782 <s> -0.2218
-1.4771 停下 -0.2218
-1.4771 前进 -0.2218
-1.4771 后退 -0.2218
-1.4771 小白 -0.2218
-1.4771 左转 -0.2218

\2-grams:
-1.0000 <s> 停下 0.0000
-1.0000 <s> 前进 0.0000
-1.0000 <s> 后退 0.0000
-1.0000 <s> 小白 0.0000
-1.0000 <s> 左转 0.0000
-0.3010 停下 </s> -0.3010
-0.3010 前进 </s> -0.3010
-0.3010 后退 </s> -0.3010
-0.3010 小白 </s> -0.3010
-0.3010 左转 </s> -0.3010

\3-grams:
-0.3010 <s> 停下 </s>
-0.3010 <s> 前进 </s>
-0.3010 <s> 后退 </s>
-0.3010 <s> 小白 </s>
-0.3010 <s> 左转 </s>

\end\
