Language model created by QuickLM on Wed Nov 11 00:51:48 EST 2020
Copyright (c) 1996-2010 Carnegie Mellon University and Alexander I. Rudnicky

The model is in standard ARPA format, designed by Doug Paul while he was at MITRE.

The code that was used to produce this language model is available in Open Source.
Please visit http://www.speech.cs.cmu.edu/tools/ for more information

The (fixed) discount mass is 0.5. The backoffs are computed using the ratio method.
This model based on a corpus of 16 sentences and 49 words

\data\
ngram 1=49
ngram 2=81
ngram 3=78

\1-grams:
-1.1614 </s> -0.3010
-1.1614 <s> -0.2700
-2.0645 A -0.2897
-2.0645 AI -0.2700
-1.8884 AN -0.2619
-2.3655 ANG -0.2700
-1.7634 AO -0.2619
-2.3655 B -0.2973
-1.7634 D -0.2877
-2.0645 EI -0.2935
-2.3655 ENG -0.2954
-1.8884 G -0.2877
-2.0645 H -0.2916
-2.3655 I -0.2973
-2.3655 IA -0.2700
-2.3655 IAO -0.2992
-2.0645 IB -0.2700
-2.3655 ING -0.2973
-1.8884 K -0.2916
-2.0645 L -0.2973
-1.7634 OU -0.2819
-2.0645 S -0.2973
-1.8884 SH -0.2954
-2.0645 T -0.2973
-2.0645 U -0.2700
-1.8884 UAN -0.2700
-2.3655 UI -0.2700
-1.8884 UO -0.2858
-2.3655 W -0.2954
-2.0645 X -0.2973
-1.7634 Y -0.2858
-1.8884 Z -0.2954
-2.0645 ZH -0.2954
-2.3655 低速 -0.2935
-2.3655 停下 -0.2973
-2.3655 升高 -0.2954
-2.3655 右十 -0.2935
-2.3655 右看 -0.2935
-2.3655 右转 -0.2935
-2.3655 后退 -0.2973
-2.3655 导航 -0.2935
-2.3655 小白 -0.2973
-2.3655 左十 -0.2954
-2.3655 左看 -0.2954
-2.3655 左转 -0.2954
-2.3655 弯腰 -0.2992
-2.3655 雷达关 -0.2973
-2.3655 雷达开 -0.2973
-2.3655 高速 -0.2954

\2-grams:
-1.5051 <s> 低速 0.0000
-1.5051 <s> 停下 0.0000
-1.5051 <s> 升高 0.0000
-1.5051 <s> 右十 0.0000
-1.5051 <s> 右看 0.0000
-1.5051 <s> 右转 0.0000
-1.5051 <s> 后退 0.0000
-1.5051 <s> 导航 0.0000
-1.5051 <s> 小白 0.0000
-1.5051 <s> 左十 0.0000
-1.5051 <s> 左看 0.0000
-1.5051 <s> 左转 0.0000
-1.5051 <s> 弯腰 0.0000
-1.5051 <s> 雷达关 0.0000
-1.5051 <s> 雷达开 0.0000
-1.5051 <s> 高速 0.0000
-0.6021 A G -0.2218
-0.6021 A K -0.2218
-0.3010 AI </s> -0.3010
-0.4771 AN </s> -0.3010
-0.7782 AN Y -0.2430
-0.3010 ANG </s> -0.3010
-0.6021 AO </s> -0.3010
-0.9031 AO H -0.1761
-0.9031 AO S 0.0000
-0.3010 B AI 0.0000
-0.6021 D A 0.0000
-0.9031 D AO -0.2430
-0.9031 D I 0.0000
-0.3010 EI D -0.1761
-0.3010 ENG G -0.1249
-0.4771 G AO -0.0969
-0.7782 G UAN 0.0000
-0.6021 H ANG 0.0000
-0.6021 H OU -0.2430
-0.3010 I S 0.0000
-0.3010 IA </s> -0.3010
-0.3010 IAO B 0.0000
-0.3010 IB </s> -0.3010
-0.3010 ING X -0.1761
-0.7782 K AI 0.0000
-0.4771 K AN -0.1249
-0.3010 L EI 0.0000
-0.9031 OU K -0.1249
-0.9031 OU SH -0.1249
-0.9031 OU T -0.1761
-0.9031 OU ZH 0.0000
-0.3010 S U 0.0000
-0.7782 SH ENG 0.0000
-0.4771 SH IB 0.0000
-0.6021 T ING 0.0000
-0.6021 T UI 0.0000
-0.3010 U </s> -0.3010
-0.3010 UAN </s> -0.3010
-0.3010 UI </s> -0.3010
-0.7782 UO K -0.1249
-0.7782 UO SH -0.1249
-0.7782 UO ZH 0.0000
-0.3010 W AN -0.2218
-0.6021 X IA 0.0000
-0.6021 X IAO 0.0000
-0.9031 Y AO -0.1761
-0.4260 Y OU -0.0969
-0.3010 Z UO 0.0000
-0.3010 ZH UAN 0.0000
-0.3010 低速 D -0.2430
-0.3010 停下 T -0.1761
-0.3010 升高 SH -0.2218
-0.3010 右十 Y -0.0969
-0.3010 右看 Y -0.0969
-0.3010 右转 Y -0.0969
-0.3010 后退 H -0.1761
-0.3010 导航 D -0.2430
-0.3010 小白 X -0.1761
-0.3010 左十 Z 0.0000
-0.3010 左看 Z 0.0000
-0.3010 左转 Z 0.0000
-0.3010 弯腰 W 0.0000
-0.3010 雷达关 L 0.0000
-0.3010 雷达开 L 0.0000
-0.3010 高速 G -0.1249

\3-grams:
-0.3010 <s> 低速 D
-0.3010 <s> 停下 T
-0.3010 <s> 升高 SH
-0.3010 <s> 右十 Y
-0.3010 <s> 右看 Y
-0.3010 <s> 右转 Y
-0.3010 <s> 后退 H
-0.3010 <s> 导航 D
-0.3010 <s> 小白 X
-0.3010 <s> 左十 Z
-0.3010 <s> 左看 Z
-0.3010 <s> 左转 Z
-0.3010 <s> 弯腰 W
-0.3010 <s> 雷达关 L
-0.3010 <s> 雷达开 L
-0.3010 <s> 高速 G
-0.3010 A G UAN
-0.3010 A K AI
-0.3010 AN Y AO
-0.3010 AO H ANG
-0.3010 AO S U
-0.3010 B AI </s>
-0.6021 D A G
-0.6021 D A K
-0.3010 D AO H
-0.3010 D I S
-0.3010 EI D A
-0.3010 ENG G AO
-0.6021 G AO </s>
-0.6021 G AO S
-0.3010 G UAN </s>
-0.3010 H ANG </s>
-0.3010 H OU T
-0.3010 I S U
-0.3010 IAO B AI
-0.3010 ING X IA
-0.3010 K AI </s>
-0.3010 K AN </s>
-0.3010 L EI D
-0.3010 OU K AN
-0.3010 OU SH IB
-0.3010 OU T UI
-0.3010 OU ZH UAN
-0.3010 S U </s>
-0.3010 SH ENG G
-0.3010 SH IB </s>
-0.3010 T ING X
-0.3010 T UI </s>
-0.3010 UO K AN
-0.3010 UO SH IB
-0.3010 UO ZH UAN
-0.3010 W AN Y
-0.3010 X IA </s>
-0.3010 X IAO B
-0.3010 Y AO </s>
-0.7782 Y OU K
-0.7782 Y OU SH
-0.7782 Y OU ZH
-0.7782 Z UO K
-0.7782 Z UO SH
-0.7782 Z UO ZH
-0.3010 ZH UAN </s>
-0.3010 低速 D I
-0.3010 停下 T ING
-0.3010 升高 SH ENG
-0.3010 右十 Y OU
-0.3010 右看 Y OU
-0.3010 右转 Y OU
-0.3010 后退 H OU
-0.3010 导航 D AO
-0.3010 小白 X IAO
-0.3010 左十 Z UO
-0.3010 左看 Z UO
-0.3010 左转 Z UO
-0.3010 弯腰 W AN
-0.3010 雷达关 L EI
-0.3010 雷达开 L EI
-0.3010 高速 G AO

\end\
