Language model created by QuickLM on Wed Nov 18 00:42:19 EST 2020
Copyright (c) 1996-2010 Carnegie Mellon University and Alexander I. Rudnicky

The model is in standard ARPA format, designed by Doug Paul while he was at MITRE.

The code that was used to produce this language model is available in Open Source.
Please visit http://www.speech.cs.cmu.edu/tools/ for more information

The (fixed) discount mass is 0.5. The backoffs are computed using the ratio method.
This model based on a corpus of 24 sentences and 26 words

\data\
ngram 1=26
ngram 2=48
ngram 3=24

\1-grams:
-0.7782 </s> -0.3010
-0.7782 <s> -0.2218
-2.1584 仰十 -0.2218
-2.1584 低速 -0.2218
-2.1584 停下 -0.2218
-2.1584 升一 -0.2218
-2.1584 升五 -0.2218
-2.1584 升高 -0.2218
-2.1584 右十 -0.2218
-2.1584 右看 -0.2218
-2.1584 右转 -0.2218
-2.1584 后仰 -0.2218
-2.1584 后退 -0.2218
-2.1584 导航 -0.2218
-2.1584 小白 -0.2218
-2.1584 左十 -0.2218
-2.1584 左看 -0.2218
-2.1584 左转 -0.2218
-2.1584 弯十 -0.2218
-2.1584 弯腰 -0.2218
-2.1584 降一 -0.2218
-2.1584 降五 -0.2218
-2.1584 降低 -0.2218
-2.1584 雷达关 -0.2218
-2.1584 雷达开 -0.2218
-2.1584 高速 -0.2218

\2-grams:
-1.6812 <s> 仰十 0.0000
-1.6812 <s> 低速 0.0000
-1.6812 <s> 停下 0.0000
-1.6812 <s> 升一 0.0000
-1.6812 <s> 升五 0.0000
-1.6812 <s> 升高 0.0000
-1.6812 <s> 右十 0.0000
-1.6812 <s> 右看 0.0000
-1.6812 <s> 右转 0.0000
-1.6812 <s> 后仰 0.0000
-1.6812 <s> 后退 0.0000
-1.6812 <s> 导航 0.0000
-1.6812 <s> 小白 0.0000
-1.6812 <s> 左十 0.0000
-1.6812 <s> 左看 0.0000
-1.6812 <s> 左转 0.0000
-1.6812 <s> 弯十 0.0000
-1.6812 <s> 弯腰 0.0000
-1.6812 <s> 降一 0.0000
-1.6812 <s> 降五 0.0000
-1.6812 <s> 降低 0.0000
-1.6812 <s> 雷达关 0.0000
-1.6812 <s> 雷达开 0.0000
-1.6812 <s> 高速 0.0000
-0.3010 仰十 </s> -0.3010
-0.3010 低速 </s> -0.3010
-0.3010 停下 </s> -0.3010
-0.3010 升一 </s> -0.3010
-0.3010 升五 </s> -0.3010
-0.3010 升高 </s> -0.3010
-0.3010 右十 </s> -0.3010
-0.3010 右看 </s> -0.3010
-0.3010 右转 </s> -0.3010
-0.3010 后仰 </s> -0.3010
-0.3010 后退 </s> -0.3010
-0.3010 导航 </s> -0.3010
-0.3010 小白 </s> -0.3010
-0.3010 左十 </s> -0.3010
-0.3010 左看 </s> -0.3010
-0.3010 左转 </s> -0.3010
-0.3010 弯十 </s> -0.3010
-0.3010 弯腰 </s> -0.3010
-0.3010 降一 </s> -0.3010
-0.3010 降五 </s> -0.3010
-0.3010 降低 </s> -0.3010
-0.3010 雷达关 </s> -0.3010
-0.3010 雷达开 </s> -0.3010
-0.3010 高速 </s> -0.3010

\3-grams:
-0.3010 <s> 仰十 </s>
-0.3010 <s> 低速 </s>
-0.3010 <s> 停下 </s>
-0.3010 <s> 升一 </s>
-0.3010 <s> 升五 </s>
-0.3010 <s> 升高 </s>
-0.3010 <s> 右十 </s>
-0.3010 <s> 右看 </s>
-0.3010 <s> 右转 </s>
-0.3010 <s> 后仰 </s>
-0.3010 <s> 后退 </s>
-0.3010 <s> 导航 </s>
-0.3010 <s> 小白 </s>
-0.3010 <s> 左十 </s>
-0.3010 <s> 左看 </s>
-0.3010 <s> 左转 </s>
-0.3010 <s> 弯十 </s>
-0.3010 <s> 弯腰 </s>
-0.3010 <s> 降一 </s>
-0.3010 <s> 降五 </s>
-0.3010 <s> 降低 </s>
-0.3010 <s> 雷达关 </s>
-0.3010 <s> 雷达开 </s>
-0.3010 <s> 高速 </s>

\end\
