Language model created by QuickLM on Wed Dec  9 00:12:30 EST 2020
Copyright (c) 1996-2010 Carnegie Mellon University and Alexander I. Rudnicky

The model is in standard ARPA format, designed by Doug Paul while he was at MITRE.

The code that was used to produce this language model is available in Open Source.
Please visit http://www.speech.cs.cmu.edu/tools/ for more information

The (fixed) discount mass is 0.5. The backoffs are computed using the ratio method.
This model based on a corpus of 30 sentences and 32 words

\data\
ngram 1=32
ngram 2=60
ngram 3=30

\1-grams:
-0.7782 </s> -0.3010
-0.7782 <s> -0.2218
-2.2553 仰十 -0.2218
-2.2553 低速 -0.2218
-2.2553 俯身潜行 -0.2218
-2.2553 停下 -0.2218
-2.2553 前进 -0.2218
-2.2553 升一 -0.2218
-2.2553 升五 -0.2218
-2.2553 升高 -0.2218
-2.2553 右十 -0.2218
-2.2553 右扭 -0.2218
-2.2553 右看 -0.2218
-2.2553 右自转 -0.2218
-2.2553 右转 -0.2218
-2.2553 后仰 -0.2218
-2.2553 后退 -0.2218
-2.2553 导航 -0.2218
-2.2553 小白 -0.2218
-2.2553 左十 -0.2218
-2.2553 左扭 -0.2218
-2.2553 左看 -0.2218
-2.2553 左自转 -0.2218
-2.2553 左转 -0.2218
-2.2553 弯十 -0.2218
-2.2553 弯腰 -0.2218
-2.2553 降一 -0.2218
-2.2553 降五 -0.2218
-2.2553 降低 -0.2218
-2.2553 雷达关 -0.2218
-2.2553 雷达开 -0.2218
-2.2553 高速 -0.2218

\2-grams:
-1.7782 <s> 仰十 0.0000
-1.7782 <s> 低速 0.0000
-1.7782 <s> 俯身潜行 0.0000
-1.7782 <s> 停下 0.0000
-1.7782 <s> 前进 0.0000
-1.7782 <s> 升一 0.0000
-1.7782 <s> 升五 0.0000
-1.7782 <s> 升高 0.0000
-1.7782 <s> 右十 0.0000
-1.7782 <s> 右扭 0.0000
-1.7782 <s> 右看 0.0000
-1.7782 <s> 右自转 0.0000
-1.7782 <s> 右转 0.0000
-1.7782 <s> 后仰 0.0000
-1.7782 <s> 后退 0.0000
-1.7782 <s> 导航 0.0000
-1.7782 <s> 小白 0.0000
-1.7782 <s> 左十 0.0000
-1.7782 <s> 左扭 0.0000
-1.7782 <s> 左看 0.0000
-1.7782 <s> 左自转 0.0000
-1.7782 <s> 左转 0.0000
-1.7782 <s> 弯十 0.0000
-1.7782 <s> 弯腰 0.0000
-1.7782 <s> 降一 0.0000
-1.7782 <s> 降五 0.0000
-1.7782 <s> 降低 0.0000
-1.7782 <s> 雷达关 0.0000
-1.7782 <s> 雷达开 0.0000
-1.7782 <s> 高速 0.0000
-0.3010 仰十 </s> -0.3010
-0.3010 低速 </s> -0.3010
-0.3010 俯身潜行 </s> -0.3010
-0.3010 停下 </s> -0.3010
-0.3010 前进 </s> -0.3010
-0.3010 升一 </s> -0.3010
-0.3010 升五 </s> -0.3010
-0.3010 升高 </s> -0.3010
-0.3010 右十 </s> -0.3010
-0.3010 右扭 </s> -0.3010
-0.3010 右看 </s> -0.3010
-0.3010 右自转 </s> -0.3010
-0.3010 右转 </s> -0.3010
-0.3010 后仰 </s> -0.3010
-0.3010 后退 </s> -0.3010
-0.3010 导航 </s> -0.3010
-0.3010 小白 </s> -0.3010
-0.3010 左十 </s> -0.3010
-0.3010 左扭 </s> -0.3010
-0.3010 左看 </s> -0.3010
-0.3010 左自转 </s> -0.3010
-0.3010 左转 </s> -0.3010
-0.3010 弯十 </s> -0.3010
-0.3010 弯腰 </s> -0.3010
-0.3010 降一 </s> -0.3010
-0.3010 降五 </s> -0.3010
-0.3010 降低 </s> -0.3010
-0.3010 雷达关 </s> -0.3010
-0.3010 雷达开 </s> -0.3010
-0.3010 高速 </s> -0.3010

\3-grams:
-0.3010 <s> 仰十 </s>
-0.3010 <s> 低速 </s>
-0.3010 <s> 俯身潜行 </s>
-0.3010 <s> 停下 </s>
-0.3010 <s> 前进 </s>
-0.3010 <s> 升一 </s>
-0.3010 <s> 升五 </s>
-0.3010 <s> 升高 </s>
-0.3010 <s> 右十 </s>
-0.3010 <s> 右扭 </s>
-0.3010 <s> 右看 </s>
-0.3010 <s> 右自转 </s>
-0.3010 <s> 右转 </s>
-0.3010 <s> 后仰 </s>
-0.3010 <s> 后退 </s>
-0.3010 <s> 导航 </s>
-0.3010 <s> 小白 </s>
-0.3010 <s> 左十 </s>
-0.3010 <s> 左扭 </s>
-0.3010 <s> 左看 </s>
-0.3010 <s> 左自转 </s>
-0.3010 <s> 左转 </s>
-0.3010 <s> 弯十 </s>
-0.3010 <s> 弯腰 </s>
-0.3010 <s> 降一 </s>
-0.3010 <s> 降五 </s>
-0.3010 <s> 降低 </s>
-0.3010 <s> 雷达关 </s>
-0.3010 <s> 雷达开 </s>
-0.3010 <s> 高速 </s>

\end\
